0.0
0.0
0.0
0.0
-0.1968633826670012
0.22203896638728893
0.8232467676485015
-0.878589589896279
0.11167338859747167
-0.26376835670129917
0.0
0.0
0.0
0.0
0.0
0.0
0.0
6.998315249958344
-4.315344834774239
-0.6531629188262529
0.6397636497482085
1.9791153492198401
-1.6107880573883966
-0.5069615367300786
0.456422744600793
-0.6256993300241012
2.359708273522759
-1.7467374167821554
-3.7834453443847478
0.0
0.0
0.0
0.0
0.0
0.0
0.10015682432104209
1.3789918483921295
0.36408355879840304
0.15092363804926756
-0.674320365093588
-0.7497093233560116
0.41287578744810427
-1.4708009167894385
1.4527873753248504
0.5771945133008999
0.12375245213492424
0.0
0.0
0.0
0.0
-0.3983531936052019
0.8077459010948848
0.2832302993345368
0.5286171929287773
0.18793397550013402
-0.4378369922984016
-0.7106837019830236
-0.36273264184338494
0.3517936398004278
0.9954731400849257
0.25120776027084235
-1.0701593421920974
-1.0701593421920974
0.0
0.0
-0.6751651065090889
1.1753572500573677
-0.4891241855552555
0.7399147924271292
0.5479060740406225
0.3076709373987845
-1.2842516802896786
-0.21922723505802122
-0.22627175506641042
0.5264411463159272
0.9974156604080873
2.015584337054426
0.0
-1.0701593421920974
0.0
0.0
-0.6751651065090889
-0.5761687688379773
0.8100674576505177
0.4825720735267055
0.8473115304783979
0.4651941034413595
0.5828113778729411
0.2726171257989696
0.42464431162792976
0.6366872559785962
-0.17561489645519834
-0.25462438444165353
-1.0701593421920974
-1.0701593421920974
0.0
0.0
-0.4593610381746847
-1.5282862776994965
-0.5365217209119295
0.7114337002340744
0.42118977068251984
0.833054046399344
0.7375957438172868
0.8986528828051485
0.6632368559410613
0.02589620095305164
-0.5772260559794202
2.373104401797336
-1.0701593421920974
0.0
0.0
0.0
-0.4593610381746847
-0.19035005905943753
-0.21224692080836957
0.7342247590417895
0.8574361490345154
1.2943104036387298
0.6622614923851337
0.41199286274565605
0.021562141688730628
-0.5707079015415215
-1.2028571575737919
2.2098758553180784
-5.508551468834611
0.0
0.0
0.0
-1.0148963902801287
0.5040481048309479
1.0604849888875516
-0.5458657027514703
0.06263184210425359
1.6671753924059622
-0.5645199642638583
-0.17243489764842637
0.34581706350645364
-0.15172312498837914
0.46251284970175643
0.07483095989138483
0.10823768020542003
-1.7603409249850432
0.0
0.0
-0.5555353521053841
-0.5780443012733052
-0.943108944520355
-0.05735416728436643
-1.7266123997207834
0.7917978313602068
0.3963149591443443
0.026505737794816672
-0.08253940589612865
0.3248816334485801
0.3559740293556161
-0.8918339671435579
0.0
-1.7603409249850432
0.0
0.0
-0.5555353521053841
1.3321902709924778
0.9512404920611096
0.11497327599864546
-0.2382104235657176
0.3031505560805536
-0.633656032276148
-1.0061887329866221
-0.4926612710820324
-0.9868052369795551
-0.23301550250387112
0.8329850506927956
-0.34234955865025307
-1.7603409249850432
0.0
0.0
-0.5555353521053841
-1.665026236017859
0.5079619069166187
-0.09041408672686671
-0.09526028285112834
0.5888096834571103
-0.47240829199535184
-0.2644065109127211
-0.740333978496627
-0.29517631880648887
-1.281893062515672
0.5249727640415941
1.3612786865233637
0.0
0.0
0.0
-5.587679222949147
1.07707080577351
-0.3138965304089722
-0.23237701899926033
0.6893255363774496
0.698027815525493
-0.794375351647836
-0.45761373612017003
-0.4718206625061525
-0.33394898583882565
-1.3348835935077858
-0.9720758242469877
0.9950793745626446
0.0
0.0
0.0
0.0
2.3673414865336557
0.3662058409639796
0.9730133362917559
2.2567032744586575
-1.4050427319047367
0.17676611858056554
-0.3540714796488969
0.6675889982057083
0.8951481034417038
-4.457139859290411
1.923719987146174
1.923719987146174
0.0
0.0
0.0
0.0
-1.3785102079794744
4.8516219040774615
7.9099759827907485
-5.820466268174305
-5.691120330863708
1.0731089084314307
0.553283366399316
0.4155457420415781
-1.3785102079794744
-1.3785102079794744
0.0
0.0
0.0
0.0
0.0
0.0
0.0
0.0
0.0
0.0
0.0
0.3858182366324193
-0.16971711547317309
1.6889263078086865
0.0
0.0
0.0
0.0
0.0
0.0
